%YAML:1.0
my_svm: !!opencv-ml-svm
   svm_type: C_SVC
   kernel: { type:POLY, degree:4., gamma:4., coef0:1. }
   C: 1.
   term_criteria: { epsilon:1.1920928955078125e-007, iterations:1000 }
   var_all: 12
   var_count: 12
   class_count: 2
   class_labels: !!opencv-matrix
      rows: 1
      cols: 2
      dt: i
      data: [ -1, 1 ]
   sv_total: 10
   support_vectors:
      - [ 5.83333015e-001, -1., 3.33332986e-001, -6.03774011e-001, 1.,
          -1., 1., 3.58779013e-001, -1., -4.83871013e-001, 0., -1. ]
      - [ 4.58332986e-001, 1., 1., -3.58491004e-001, -3.74428988e-001,
          -1., -1., -4.80915993e-001, 1., -9.35483992e-001, 0.,
          -3.33332986e-001 ]
      - [ 8.75000000e-001, -1., -3.33332986e-001, -5.09433985e-001,
          -3.47032011e-001, -1., 1., -2.36641005e-001, 1.,
          -9.35483992e-001, -1., -3.33332986e-001 ]
      - [ 5.00000000e-001, 1., 1., -5.09433985e-001, -7.67122984e-001,
          -1., -1., 5.34350984e-002, -1., -8.70967984e-001, -1., -1. ]
      - [ 7.08333015e-001, 1., 1., -3.20755005e-001, -1.05022997e-001,
          -1., 1., -4.19847012e-001, -1., -2.25805998e-001, 0., 1. ]
      - [ 1.66666999e-001, 1., -3.33332986e-001, -4.33961987e-001,
          -3.83561999e-001, -1., -1., 6.87023029e-002, -1.,
          -9.03226018e-001, -1., -1. ]
      - [ 1.25000000e-001, 1., 3.33332986e-001, -3.20755005e-001,
          -4.06392992e-001, 1., 1., 8.39695036e-002, 1.,
          -8.06451976e-001, 0., -3.33332986e-001 ]
      - [ 2.50000000e-001, 1., 1., -6.98113024e-001, -4.84017998e-001,
          -1., 1., 8.39695036e-002, 1., -6.12902999e-001, 0.,
          -3.33332986e-001 ]
      - [ 2.91667014e-001, 1., 1., -1.32074997e-001, -2.37443000e-001,
          -1., 1., 5.11449993e-001, -1., -6.12902999e-001, 0.,
          3.33332986e-001 ]
      - [ 4.16667014e-001, -1., 1., 5.66038005e-002, 2.83104986e-001,
          -1., 1., 2.67176002e-001, -1., 2.90322989e-001, 0., 1. ]
   decision_functions:
      -
         sv_count: 10
         rho: 5.1146317103837147e-001
         alpha: [ 1.9873430685281208e-006, 2.4746420084195247e-006,
             1.7955092064935288e-006, 1.5030096018580167e-006,
             -4.7209231207415764e-008, -2.0064650629382667e-006,
             -1.9394389273503268e-006, -1.4258041888379537e-006,
             -1.2304566937209818e-006, -1.1111297812442453e-006 ]
         index: [ 0, 1, 2, 3, 4, 5, 6, 7, 8, 9 ]
